<?xml version="1.0"?>
<opencv_storage>
<opencv_ml_svm>
  <format>3</format>
  <svmType>C_SVC</svmType>
  <kernel>
    <type>RBF</type>
    <gamma>1.</gamma></kernel>
  <C>35.</C>
  <term_criteria><epsilon>1.1920928955078125e-07</epsilon>
    <iterations>1000</iterations></term_criteria>
  <var_count>12</var_count>
  <class_count>2</class_count>
  <class_labels type_id="opencv-matrix">
    <rows>2</rows>
    <cols>1</cols>
    <dt>i</dt>
    <data>
      -1 1</data></class_labels>
  <sv_total>16</sv_total>
  <support_vectors>
    <_>
      5.22788204e-02 7.23860636e-02 7.23860636e-02 9.38337818e-02
      9.78552327e-02 9.24933031e-02 1.12600543e-01 8.04289579e-02
      9.91957113e-02 9.78552327e-02 4.95978557e-02 7.90884718e-02</_>
    <_>
      2.22054377e-01 4.53172214e-02 2.87009068e-02 6.04229607e-02
      7.55287036e-02 7.09969774e-02 6.64652586e-02 1.08761325e-01
      5.28700911e-02 7.09969774e-02 4.53172214e-02 1.52567983e-01</_>
    <_>
      2.48447210e-02 1.05590068e-01 7.71960989e-02 3.99290174e-02
      1.30434781e-01 7.18722269e-02 7.54214749e-02 4.17036377e-02
      4.88021299e-02 1.21561669e-01 7.00976029e-02 1.92546591e-01</_>
    <_>
      6.17352575e-02 7.67519400e-02 6.89655170e-02 8.39821994e-02
      1.01223581e-01 8.06451589e-02 9.06562805e-02 9.51056704e-02
      1.07897662e-01 9.23248008e-02 7.17463791e-02 6.89655170e-02</_>
    <_>
      3.01291253e-02 7.17360154e-02 1.07604019e-01 8.17790553e-02
      9.03873742e-02 9.03873742e-02 9.89956930e-02 3.58680077e-02
      2.18077481e-01 7.60401711e-02 5.02152070e-02 4.87804897e-02</_>
    <_>
      8.53174627e-02 6.54761940e-02 6.74603209e-02 4.04761918e-02
      1.10317461e-01 8.88888910e-02 6.66666701e-02 5.79365082e-02
      1.08333334e-01 9.44444463e-02 1.01587303e-01 1.13095239e-01</_>
    <_>
      6.03448264e-02 6.32183924e-02 7.75862038e-02 1.33620694e-01
      1.00574709e-01 7.32758641e-02 7.47126415e-02 9.91379321e-02
      7.75862038e-02 1.04885057e-01 6.60919547e-02 6.89655170e-02</_>
    <_>
      5.27210869e-02 6.97278902e-02 1.25850335e-01 9.86394510e-02
      1.02040812e-01 7.65306130e-02 7.14285672e-02 6.63265288e-02
      9.01360512e-02 1.03741497e-01 6.80272132e-02 7.48299286e-02</_>
    <_>
      4.69168909e-02 7.90884718e-02 1.24664880e-01 7.50670284e-02
      9.91957113e-02 5.63002713e-02 7.37265423e-02 6.30026832e-02
      8.04289579e-02 1.24664880e-01 8.04289579e-02 9.65147465e-02</_>
    <_>
      8.76002461e-02 7.09438622e-02 8.01974088e-02 1.68414548e-01
      8.63664374e-02 5.42874746e-02 5.67550883e-02 1.16594687e-01
      6.78593442e-02 6.23072162e-02 1.03022821e-01 4.56508324e-02</_>
    <_>
      5.06329127e-02 6.01265840e-02 1.20253168e-01 1.37658238e-01
      9.49367136e-02 6.96202517e-02 6.32911399e-02 8.38607624e-02
      8.70253220e-02 9.33544338e-02 6.48734197e-02 7.43670911e-02</_>
    <_>
      4.09069657e-02 7.59700835e-02 7.99439028e-02 5.56334741e-02
      8.41514766e-02 1.15942031e-01 1.21318378e-01 4.37120162e-02
      1.35343626e-01 9.11640972e-02 4.93221134e-02 1.06591865e-01</_>
    <_>
      9.15662646e-02 9.51807275e-02 9.63855460e-02 4.93975915e-02
      6.50602430e-02 1.06024101e-01 9.51807275e-02 4.93975915e-02
      1.06024101e-01 8.07228908e-02 8.91566277e-02 7.59036168e-02</_>
    <_>
      4.76190485e-02 6.34920672e-02 1.31519273e-01 1.11111112e-01
      9.52380970e-02 8.84353742e-02 5.89569174e-02 7.93650821e-02
      1.08843535e-01 1.13378689e-01 4.76190485e-02 5.44217676e-02</_>
    <_>
      8.16582888e-02 9.79899466e-02 7.66331628e-02 7.78894499e-02
      8.41708556e-02 7.28643239e-02 7.66331628e-02 7.66331628e-02
      1.00502513e-01 9.04522613e-02 8.91959816e-02 7.53768831e-02</_>
    <_>
      5.28052822e-02 6.27062693e-02 7.26072639e-02 1.08910896e-01
      9.90099013e-02 9.24092457e-02 7.92079270e-02 1.22112215e-01
      6.27062693e-02 1.02310233e-01 4.29042913e-02 1.02310233e-01</_></support_vectors>
  <decision_functions>
    <_>
      <sv_count>16</sv_count>
      <rho>-3.6422204116863574e-02</rho>
      <alpha>
        35. 1.3852549556407940e+01 1.7877301543494294e+01 35. 35. 35.
        35. 35. -2.4016907539527063e-01 -35. -35. -35.
        -3.1489682024506969e+01 -35. -35. -35.</alpha>
      <index>
        0 2 4 7 8 10 12 14 1 3 5 6 9 11 13 15</index></_></decision_functions></opencv_ml_svm>
</opencv_storage>
