<?xml version="1.0"?>
<opencv_storage>
<opencv_ml_svm>
  <format>3</format>
  <svmType>C_SVC</svmType>
  <kernel>
    <type>RBF</type>
    <gamma>1.</gamma></kernel>
  <C>35.</C>
  <term_criteria><epsilon>1.1920928955078125e-07</epsilon>
    <iterations>1000</iterations></term_criteria>
  <var_count>12</var_count>
  <class_count>2</class_count>
  <class_labels type_id="opencv-matrix">
    <rows>2</rows>
    <cols>1</cols>
    <dt>i</dt>
    <data>
      -1 1</data></class_labels>
  <sv_total>137</sv_total>
  <support_vectors>
    <_>
      7.23860636e-02 8.04289579e-02 7.23860636e-02 1.01876676e-01
      8.71313736e-02 6.70241341e-02 1.21983916e-01 1.15281507e-01
      4.82573733e-02 8.44504014e-02 4.95978557e-02 9.91957113e-02</_>
    <_>
      1.26885533e-01 1.02040820e-01 3.28305252e-02 1.03815444e-01
      8.16326588e-02 7.27595389e-02 8.16326588e-02 1.59716070e-01
      1.86335407e-02 3.81543934e-02 9.84915718e-02 8.34072754e-02</_>
    <_>
      6.72969967e-02 7.67519400e-02 7.95328096e-02 7.67519400e-02
      7.78642893e-02 6.45161271e-02 1.58509448e-01 1.17352612e-01
      5.39488308e-02 8.45383704e-02 6.56284764e-02 7.73081183e-02</_>
    <_>
      6.30952418e-02 7.18254000e-02 5.07936515e-02 6.42857179e-02
      6.54761940e-02 6.42857179e-02 1.94047615e-01 1.39682546e-01
      7.81746060e-02 3.88888903e-02 8.84920657e-02 8.09523836e-02</_>
    <_>
      6.03448264e-02 1.02011494e-01 8.76436755e-02 1.06321841e-01
      6.03448264e-02 7.75862038e-02 9.05172378e-02 9.62643698e-02
      5.74712642e-02 1.25000000e-01 6.32183924e-02 7.32758641e-02</_>
    <_>
      6.97278902e-02 9.01360512e-02 6.80272132e-02 1.07142858e-01
      7.14285672e-02 1.29251704e-01 8.84353742e-02 8.84353742e-02
      5.10204062e-02 9.18367356e-02 7.82312900e-02 6.63265288e-02</_>
    <_>
      8.20481181e-02 7.64959902e-02 1.05490431e-01 7.27945715e-02
      5.98396026e-02 7.77297914e-02 6.60086349e-02 4.38001230e-02
      8.38988274e-02 1.67180747e-01 1.04873531e-01 5.98396026e-02</_>
    <_>
      5.22151925e-02 8.22784826e-02 7.12025315e-02 1.07594937e-01
      6.80379793e-02 1.15506329e-01 1.01265825e-01 9.33544338e-02
      4.58860770e-02 1.29746839e-01 6.17088638e-02 7.12025315e-02</_>
    <_>
      6.17110804e-02 7.71388486e-02 3.36605906e-02 8.11126679e-02
      1.03319310e-01 7.83076212e-02 1.61991581e-01 1.65497899e-01
      3.66993919e-02 5.37634417e-02 4.06732112e-02 1.06124356e-01</_>
    <_>
      9.87951830e-02 6.02409653e-02 3.73493992e-02 6.62650615e-02
      9.63855460e-02 9.63855460e-02 1.28915668e-01 8.79518092e-02
      7.95180723e-02 4.45783138e-02 8.79518092e-02 1.15662649e-01</_>
    <_>
      5.66893443e-02 1.08843535e-01 5.66893443e-02 1.11111112e-01
      5.44217676e-02 1.20181404e-01 1.20181404e-01 9.07029510e-02
      4.53514755e-02 1.06575966e-01 4.08163257e-02 8.84353742e-02</_>
    <_>
      1.08040199e-01 7.66331628e-02 6.65829107e-02 9.67336670e-02
      7.91457295e-02 7.53768831e-02 1.13065325e-01 8.54271352e-02
      6.15577884e-02 7.78894499e-02 8.54271352e-02 7.41206035e-02</_>
    <_>
      6.60066009e-02 1.12211227e-01 8.91089141e-02 1.08910896e-01
      9.90099013e-02 6.27062693e-02 6.93069324e-02 1.12211227e-01
      4.95049506e-02 1.08910896e-01 3.63036320e-02 8.58085826e-02</_>
    <_>
      1.10810816e-01 8.64864886e-02 4.05405425e-02 1.02702707e-01
      8.37837830e-02 1.40540540e-01 1.43243253e-01 5.40540554e-02
      3.78378406e-02 4.05405425e-02 7.83783793e-02 8.10810849e-02</_>
    <_>
      7.46268630e-02 6.96517378e-02 6.63349926e-02 7.46268630e-02
      9.12106112e-02 9.78441164e-02 1.16086237e-01 6.96517378e-02
      5.14096171e-02 1.35986730e-01 7.46268630e-02 7.79436156e-02</_>
    <_>
      9.64467004e-02 7.10659921e-02 1.06598981e-01 8.12182724e-02
      8.12182724e-02 8.62944126e-02 5.07614203e-02 3.04568522e-02
      7.61421323e-02 1.67512685e-01 8.62944126e-02 6.59898445e-02</_>
    <_>
      8.92531872e-02 8.92531872e-02 5.10018207e-02 8.74316916e-02
      6.73952624e-02 8.19672123e-02 1.67577416e-01 9.83606577e-02
      3.46083790e-02 7.10382536e-02 7.65027329e-02 8.56102034e-02</_>
    <_>
      5.70902415e-02 8.28729272e-02 5.34069985e-02 9.57642719e-02
      6.44567236e-02 7.36648291e-02 1.01289138e-01 1.41804785e-01
      8.10313076e-02 8.83977935e-02 9.20810327e-02 6.81399629e-02</_>
    <_>
      5.54561689e-02 9.74955261e-02 9.12343487e-02 8.40787068e-02
      7.15563521e-02 8.40787068e-02 9.39177051e-02 6.61896244e-02
      7.69230723e-02 1.06440067e-01 1.10017888e-01 6.26118034e-02</_>
    <_>
      5.64516112e-02 1.00806445e-01 8.06451589e-02 8.46774131e-02
      6.04838692e-02 6.45161271e-02 1.25000000e-01 1.33064508e-01
      6.85483813e-02 8.46774131e-02 8.06451589e-02 6.04838692e-02</_>
    <_>
      3.05602718e-02 1.12054333e-01 7.30050951e-02 1.01867571e-01
      6.96095079e-02 9.16808173e-02 1.23938881e-01 1.18845500e-01
      4.58404087e-02 1.08658746e-01 6.11205436e-02 6.28183410e-02</_>
    <_>
      8.89101326e-02 5.54493293e-02 5.73613755e-02 5.25812618e-02
      7.07456991e-02 7.26577416e-02 1.68260038e-01 1.24282978e-01
      6.50095567e-02 8.50860402e-02 9.56022963e-02 6.40535355e-02</_>
    <_>
      6.45812303e-02 9.18264389e-02 5.95358200e-02 1.02926336e-01
      1.01917252e-01 7.56811276e-02 1.59434915e-01 8.98082703e-02
      5.04540876e-02 7.46720508e-02 5.95358200e-02 6.96266368e-02</_>
    <_>
      7.87929595e-02 6.37049451e-02 6.87342808e-02 4.86169308e-02
      8.29840750e-02 1.13998324e-01 1.17351219e-01 1.04777873e-01
      5.19698225e-02 1.18189439e-01 7.46018440e-02 7.62782916e-02</_>
    <_>
      8.36120397e-02 1.02006689e-01 6.68896288e-02 8.86287615e-02
      9.86622050e-02 9.19732451e-02 9.86622050e-02 1.05351172e-01
      4.68227416e-02 7.69230798e-02 7.02341124e-02 7.02341124e-02</_>
    <_>
      5.95611259e-02 9.24764872e-02 5.48589341e-02 1.11285262e-01
      5.17241359e-02 6.26959205e-02 8.62068981e-02 1.22257054e-01
      9.40438882e-02 7.68025070e-02 1.08150467e-01 7.99373016e-02</_>
    <_>
      8.81147459e-02 4.09836024e-02 6.55737668e-02 5.73770478e-02
      1.02459013e-01 1.29098356e-01 1.00409828e-01 9.42622870e-02
      6.14754073e-02 1.22950815e-01 2.86885239e-02 1.08606555e-01</_>
    <_>
      6.95915222e-02 9.22844112e-02 5.74886501e-02 8.16944018e-02
      1.01361573e-01 1.07413009e-01 1.31618753e-01 8.16944018e-02
      4.84114960e-02 7.71558210e-02 5.59757911e-02 9.53101292e-02</_>
    <_>
      7.57042244e-02 5.98591529e-02 6.16197176e-02 4.75352108e-02
      9.50704217e-02 1.39084503e-01 1.21478871e-01 7.57042244e-02
      7.74647892e-02 8.45070407e-02 7.21830949e-02 8.97887275e-02</_>
    <_>
      6.58682659e-02 8.50299448e-02 5.38922176e-02 9.70059931e-02
      8.74251500e-02 8.14371258e-02 1.18562877e-01 1.62874252e-01
      4.67065871e-02 4.79041934e-02 8.38323385e-02 6.94610775e-02</_>
    <_>
      5.69476075e-02 6.11780025e-02 5.62967770e-02 6.21542484e-02
      5.17409705e-02 5.17409705e-02 1.55222908e-01 1.28538892e-01
      8.85128528e-02 8.29808041e-02 1.36999682e-01 6.76862970e-02</_>
    <_>
      7.39750415e-02 1.04278073e-01 6.90730810e-02 1.11853831e-01
      6.41711205e-02 6.55080229e-02 1.14081994e-01 8.51158649e-02
      5.43671995e-02 7.21925125e-02 1.13190725e-01 7.21925125e-02</_>
    <_>
      7.04225302e-02 9.85915512e-02 7.57042244e-02 9.15492922e-02
      8.45070407e-02 1.03873238e-01 1.21478871e-01 6.33802786e-02
      5.10563366e-02 9.85915512e-02 6.16197176e-02 7.92253539e-02</_>
    <_>
      5.32724522e-02 7.45814294e-02 4.87062410e-02 6.84931502e-02
      1.08066969e-01 1.18721463e-01 1.52207002e-01 7.00152218e-02
      8.21917802e-02 6.08827993e-02 7.61035010e-02 8.67579952e-02</_>
    <_>
      6.73684180e-02 5.68421036e-02 6.31578937e-02 6.31578937e-02
      8.84210467e-02 8.63157883e-02 8.21052566e-02 7.57894665e-02
      9.68421027e-02 1.32631570e-01 7.36842081e-02 1.13684207e-01</_>
    <_>
      3.72388735e-02 1.00817442e-01 5.35876490e-02 9.90009084e-02
      6.17620349e-02 6.53950945e-02 1.37148052e-01 1.22615807e-01
      6.26702979e-02 1.06267035e-01 8.53769332e-02 6.81198910e-02</_>
    <_>
      9.48766619e-02 8.53889957e-02 7.96963945e-02 8.34914595e-02
      7.77988583e-02 7.77988583e-02 7.21062645e-02 8.91840607e-02
      6.64136633e-02 1.04364328e-01 7.21062645e-02 9.67741907e-02</_>
    <_>
      9.34065953e-02 8.10439587e-02 7.69230798e-02 7.96703324e-02
      6.31868169e-02 9.34065953e-02 9.06593427e-02 9.89011005e-02
      8.51648375e-02 6.04395606e-02 1.04395606e-01 7.28022009e-02</_>
    <_>
      9.15340036e-02 5.24602011e-02 1.01664253e-01 5.96960895e-02
      4.88422550e-02 8.39363188e-02 8.79160613e-02 1.02749638e-01
      9.44283605e-02 1.38205498e-01 8.90014470e-02 4.95658442e-02</_>
    <_>
      8.16901401e-02 9.29577425e-02 3.66197154e-02 1.08450703e-01
      7.60563388e-02 7.46478811e-02 1.46478862e-01 1.15492955e-01
      4.92957719e-02 5.63380271e-02 7.60563388e-02 8.59154910e-02</_>
    <_>
      4.78939787e-02 9.74937677e-02 7.32187405e-02 1.01561479e-01
      7.15129301e-02 4.63193841e-02 1.76092386e-01 1.12452440e-01
      4.09395099e-02 7.40060359e-02 7.84673989e-02 8.00419897e-02</_>
    <_>
      6.25889003e-02 1.05263159e-01 4.69416790e-02 9.38833579e-02
      9.95732546e-02 8.53485018e-02 1.30867705e-01 7.11237565e-02
      4.69416790e-02 7.25462288e-02 6.40113801e-02 1.20910384e-01</_>
    <_>
      8.87096748e-02 1.00000001e-01 8.70967731e-02 9.51612890e-02
      7.58064538e-02 7.90322572e-02 8.54838714e-02 7.90322572e-02
      6.61290288e-02 9.35483873e-02 7.74193555e-02 7.25806430e-02</_>
    <_>
      7.54884556e-02 7.54884556e-02 3.81882787e-02 6.74955621e-02
      8.17051530e-02 6.30550608e-02 2.19360575e-01 1.30550623e-01
      3.64120789e-02 4.52930741e-02 7.46003538e-02 9.23623443e-02</_>
    <_>
      1.14845939e-01 9.24369767e-02 6.44257739e-02 8.96358564e-02
      6.72268942e-02 8.96358564e-02 1.26050428e-01 8.12324956e-02
      7.56302550e-02 7.28291348e-02 7.56302550e-02 5.04201688e-02</_>
    <_>
      1.13475174e-01 6.38297871e-02 7.44680837e-02 6.56028315e-02
      1.15248226e-01 9.75177288e-02 9.21985805e-02 7.09219873e-02
      4.43262383e-02 1.18794322e-01 5.31914867e-02 9.04255286e-02</_>
    <_>
      9.38897207e-02 7.30253384e-02 6.55737743e-02 8.94187763e-02
      8.94187763e-02 1.08792849e-01 5.96125200e-02 9.09090936e-02
      4.91803288e-02 1.02831595e-01 8.04769024e-02 9.68703404e-02</_>
    <_>
      7.28660598e-02 6.10686988e-02 6.80083260e-02 5.69049269e-02
      6.31505847e-02 8.67453143e-02 1.40874386e-01 1.30464956e-01
      7.00902119e-02 1.21443436e-01 5.96807748e-02 6.87022880e-02</_>
    <_>
      5.70570566e-02 7.90790766e-02 4.00400385e-02 7.10710734e-02
      9.10910890e-02 4.50450443e-02 1.37137130e-01 1.25125125e-01
      7.80780762e-02 6.40640631e-02 1.02102101e-01 1.10110112e-01</_>
    <_>
      8.80773365e-02 9.98925939e-02 7.94844255e-02 1.05263159e-01
      7.19656274e-02 5.90762645e-02 7.08915144e-02 6.55209497e-02
      7.19656274e-02 9.12996829e-02 1.27819553e-01 6.87432885e-02</_>
    <_>
      8.86287615e-02 8.52842778e-02 6.85618743e-02 1.12040132e-01
      8.19398016e-02 1.12040132e-01 1.17056854e-01 8.19398016e-02
      4.51504998e-02 7.52508342e-02 5.85284270e-02 7.35785961e-02</_>
    <_>
      1.50375944e-02 1.50375947e-01 3.75939868e-02 1.50375947e-01
      1.05263159e-01 1.50375944e-02 3.00751887e-02 6.76691756e-02
      1.35338351e-01 6.76691756e-02 1.27819553e-01 9.77443606e-02</_>
    <_>
      9.90990996e-02 6.48648664e-02 5.40540554e-02 7.92792812e-02
      1.02702707e-01 1.11711711e-01 1.17117122e-01 8.64864886e-02
      5.76576591e-02 4.32432443e-02 9.18918923e-02 9.18918923e-02</_>
    <_>
      6.51085153e-02 4.17362265e-02 1.20200329e-01 5.00834696e-02
      6.84474111e-02 1.33555919e-01 1.03505842e-01 8.84808004e-02
      7.67946541e-02 1.10183634e-01 7.84641057e-02 6.34390637e-02</_>
    <_>
      6.35155067e-02 7.38552436e-02 5.02215661e-02 7.82865584e-02
      6.20384030e-02 7.23781362e-02 2.59970456e-01 1.28508121e-01
      2.80649923e-02 8.71491879e-02 3.10192015e-02 6.49926141e-02</_>
    <_>
      8.14686045e-02 8.08168575e-02 6.30023926e-02 7.79926106e-02
      6.40886351e-02 6.97371289e-02 1.06452316e-01 1.39691502e-01
      5.71366474e-02 1.20356292e-01 7.21268728e-02 6.71301335e-02</_>
    <_>
      6.98478594e-02 9.95850638e-02 4.84094061e-02 1.15491010e-01
      8.57538059e-02 3.80359627e-02 7.33056739e-02 1.39004156e-01
      9.61272493e-02 3.73443998e-02 1.18257262e-01 7.88381770e-02</_>
    <_>
      4.76190448e-02 1.00529097e-01 3.57142836e-02 1.23015866e-01
      6.74603134e-02 4.23280410e-02 1.00529097e-01 1.45502642e-01
      7.67195746e-02 4.36507910e-02 1.28306881e-01 8.86243358e-02</_>
    <_>
      3.98671106e-02 1.06312290e-01 9.19158384e-02 8.74861553e-02
      1.21816173e-01 4.54042070e-02 9.96677727e-02 5.64784072e-02
      4.09745313e-02 1.35105208e-01 5.86932451e-02 1.16279073e-01</_>
    <_>
      6.53153136e-02 1.05855860e-01 5.85585609e-02 9.00900960e-02
      7.88288340e-02 8.33333358e-02 9.00900960e-02 9.68468487e-02
      6.53153136e-02 6.98198229e-02 9.00900960e-02 1.05855860e-01</_>
    <_>
      9.87654328e-02 1.21693119e-01 6.17283918e-02 9.17107537e-02
      7.93650746e-02 1.04056433e-01 8.11287463e-02 9.17107537e-02
      5.46737202e-02 7.76014104e-02 6.70193955e-02 7.05467314e-02</_>
    <_>
      8.95404145e-02 6.97305873e-02 8.32012743e-02 8.63708407e-02
      8.87480229e-02 8.24088752e-02 8.79556313e-02 7.44849443e-02
      7.13153780e-02 8.63708407e-02 1.05388276e-01 7.44849443e-02</_>
    <_>
      9.53307375e-02 7.39299580e-02 8.94941613e-02 6.61478564e-02
      7.19844326e-02 1.07003890e-01 9.53307375e-02 7.00389072e-02
      6.22568093e-02 7.97665343e-02 8.17120597e-02 1.07003890e-01</_>
    <_>
      8.44370872e-02 7.11920559e-02 4.96688746e-02 7.45033100e-02
      9.10596028e-02 1.00993380e-01 1.35761589e-01 7.94702023e-02
      7.94702023e-02 7.45033100e-02 6.95364252e-02 8.94039720e-02</_>
    <_>
      3.57610583e-02 1.01843461e-01 2.83066388e-02 1.02649346e-01
      1.05570666e-01 3.51566449e-02 1.93915591e-01 1.93008974e-01
      1.97441336e-02 4.05963548e-02 3.60632613e-02 1.07383907e-01</_>
    <_>
      5.66280559e-02 1.20978124e-01 4.76190485e-02 9.90990996e-02
      6.56370670e-02 1.13256112e-01 1.40283138e-01 9.00900885e-02
      5.92020601e-02 6.82110712e-02 6.82110712e-02 7.07850680e-02</_>
    <_>
      1.11111112e-01 6.29629642e-02 1.48148146e-02 8.14814791e-02
      9.62962955e-02 1.37037039e-01 1.44444436e-01 1.03703700e-01
      7.03703687e-02 4.81481478e-02 3.33333313e-02 9.62962955e-02</_>
    <_>
      1.02912627e-01 6.60194159e-02 5.82524277e-02 7.37864077e-02
      7.96116516e-02 1.16504855e-01 1.02912627e-01 6.79611638e-02
      7.37864077e-02 7.96116516e-02 1.04854368e-01 7.37864077e-02</_>
    <_>
      1.03018373e-01 8.33333358e-02 7.80839920e-02 6.88976347e-02
      1.00393698e-01 8.98950100e-02 7.80839920e-02 7.87401572e-02
      6.23359568e-02 8.53018388e-02 7.67716542e-02 9.51443538e-02</_>
    <_>
      8.42332616e-02 6.69546425e-02 1.36069104e-01 6.91144690e-02
      5.83153330e-02 7.12742954e-02 9.50323939e-02 7.12742954e-02
      5.18358499e-02 1.36069104e-01 1.10151187e-01 4.96760234e-02</_>
    <_>
      9.47225913e-02 9.47225913e-02 4.33017574e-02 1.00135311e-01
      7.03653544e-02 7.30717182e-02 8.38971585e-02 1.16373472e-01
      7.17185363e-02 7.44248927e-02 1.13667116e-01 6.35994598e-02</_>
    <_>
      4.41176482e-02 7.35294148e-02 8.82352963e-02 8.08823556e-02
      5.14705889e-02 5.88235296e-02 5.88235296e-02 5.88235296e-02
      1.10294119e-01 9.55882370e-02 1.91176474e-01 8.82352963e-02</_>
    <_>
      1.14384748e-01 8.31889063e-02 3.46620455e-02 7.10571930e-02
      9.70537290e-02 1.49046794e-01 9.35875252e-02 7.97227025e-02
      5.02599664e-02 7.10571930e-02 4.15944532e-02 1.14384748e-01</_>
    <_>
      9.00783315e-02 8.35509151e-02 6.20104447e-02 8.74673650e-02
      6.46214113e-02 7.96344653e-02 1.07049607e-01 1.12924285e-01
      8.28981772e-02 6.07049614e-02 9.20365527e-02 7.70234987e-02</_>
    <_>
      4.54545468e-02 4.54545468e-02 8.71212184e-02 6.43939376e-02
      7.19697028e-02 7.19697028e-02 8.33333358e-02 8.33333358e-02
      1.02272734e-01 1.25000000e-01 1.47727281e-01 7.19697028e-02</_>
    <_>
      6.47948161e-02 6.47948161e-02 7.55939484e-02 8.20734352e-02
      9.93520468e-02 7.55939484e-02 1.05831534e-01 9.50323939e-02
      6.47948161e-02 1.29589632e-01 6.91144690e-02 7.34341219e-02</_>
    <_>
      7.46003538e-02 7.46003538e-02 8.34813491e-02 7.63765574e-02
      7.63765574e-02 6.92717582e-02 1.19005330e-01 7.10479617e-02
      6.03907667e-02 1.22557729e-01 7.99289569e-02 9.23623443e-02</_>
    <_>
      1.25968993e-01 7.55813941e-02 4.65116277e-02 5.42635657e-02
      1.10465117e-01 9.30232555e-02 1.12403102e-01 8.33333358e-02
      5.62015511e-02 7.94573650e-02 7.94573650e-02 8.33333358e-02</_>
    <_>
      7.22748861e-02 6.16113767e-02 1.01895735e-01 5.56872040e-02
      9.71564054e-02 8.41232240e-02 1.09004743e-01 9.59715694e-02
      4.62085307e-02 1.17298581e-01 6.63507134e-02 9.24170613e-02</_>
    <_>
      7.27272704e-02 1.21212117e-01 5.45454547e-02 1.16666660e-01
      8.63636360e-02 8.33333284e-02 1.18181817e-01 9.09090862e-02
      5.15151508e-02 6.81818128e-02 6.21212088e-02 7.42424205e-02</_>
    <_>
      4.62341532e-02 1.05891123e-01 6.71140924e-02 1.12602532e-01
      9.54511538e-02 5.59284091e-02 1.30499631e-01 7.45712146e-02
      6.48769587e-02 8.12826231e-02 7.23340809e-02 9.32140201e-02</_>
    <_>
      7.64331222e-02 9.55414027e-02 4.77707013e-02 8.59872624e-02
      8.59872624e-02 5.41401282e-02 1.43312097e-01 1.46496817e-01
      5.41401282e-02 6.68789819e-02 6.05095550e-02 8.28025490e-02</_>
    <_>
      4.85714264e-02 9.14285704e-02 9.71428528e-02 1.00000001e-01
      9.14285704e-02 8.28571394e-02 7.71428570e-02 7.42857158e-02
      3.42857130e-02 1.22857139e-01 5.71428575e-02 1.22857139e-01</_>
    <_>
      7.88321123e-02 1.00729920e-01 3.64963487e-02 1.05109483e-01
      8.02919641e-02 8.75912383e-02 9.34306532e-02 1.32846713e-01
      6.13138676e-02 5.83941564e-02 8.17518234e-02 8.32116753e-02</_>
    <_>
      7.82778859e-02 9.00195688e-02 9.98043045e-02 8.41487274e-02
      9.39334631e-02 9.98043045e-02 8.41487274e-02 4.50097844e-02
      6.06653616e-02 1.25244617e-01 5.67514673e-02 8.21917802e-02</_>
    <_>
      3.12500000e-02 1.28472224e-01 6.25000000e-02 1.18055560e-01
      9.37500000e-02 4.86111119e-02 6.25000000e-02 9.37500000e-02
      7.29166642e-02 1.04166664e-01 8.68055597e-02 9.72222239e-02</_>
    <_>
      7.26256967e-02 8.79888237e-02 6.56424537e-02 9.35754180e-02
      8.24022293e-02 9.07821208e-02 1.32681563e-01 7.82122910e-02
      4.46927361e-02 9.49720666e-02 8.37988779e-02 7.26256967e-02</_>
    <_>
      1.09375007e-01 1.02678575e-01 7.14285746e-02 7.14285746e-02
      7.14285746e-02 1.45089298e-01 7.58928582e-02 7.81250000e-02
      3.57142873e-02 7.81250000e-02 8.48214328e-02 7.58928582e-02</_>
    <_>
      6.58823475e-02 1.05882347e-01 4.47058789e-02 1.28235295e-01
      7.52941146e-02 5.17647043e-02 1.17647052e-01 1.21176466e-01
      4.47058789e-02 8.11764672e-02 7.88235292e-02 8.47058818e-02</_>
    <_>
      1.10678345e-01 9.21778604e-02 7.69230723e-02 9.21778604e-02
      7.10808188e-02 4.83609214e-02 6.06945790e-02 8.17916244e-02
      8.53618905e-02 9.38007087e-02 1.15871467e-01 7.10808188e-02</_>
    <_>
      1.29716977e-01 8.49056616e-02 4.00943384e-02 1.01415098e-01
      9.43396240e-02 7.54716992e-02 1.41509444e-01 9.90566015e-02
      3.77358496e-02 6.36792481e-02 5.89622632e-02 7.31132105e-02</_>
    <_>
      1.16347574e-01 7.51104578e-02 6.03829175e-02 7.95287192e-02
      9.86745209e-02 6.92194402e-02 1.08983800e-01 9.86745209e-02
      8.39469805e-02 6.18556701e-02 6.03829175e-02 8.68924856e-02</_>
    <_>
      7.07692280e-02 1.03076920e-01 8.15384611e-02 1.06153846e-01
      7.23076910e-02 1.06153846e-01 1.10769227e-01 9.23076943e-02
      4.30769250e-02 9.38461572e-02 5.23076914e-02 6.76923096e-02</_>
    <_>
      5.11551164e-02 9.73597392e-02 5.44554479e-02 8.91089141e-02
      1.00660071e-01 7.26072639e-02 8.74587521e-02 7.42574260e-02
      8.08580890e-02 9.24092457e-02 1.02310233e-01 9.73597392e-02</_>
    <_>
      7.52212405e-02 7.81710893e-02 5.89970499e-02 7.81710893e-02
      8.40707943e-02 1.32743359e-01 1.46017700e-01 1.01769909e-01
      1.76991150e-02 9.29203555e-02 4.42477874e-02 8.99704993e-02</_>
    <_>
      6.23742417e-02 7.64587522e-02 5.43259531e-02 7.44466782e-02
      6.13682084e-02 6.84104636e-02 1.75050288e-01 1.72032192e-01
      3.52112651e-02 9.05432552e-02 7.74647892e-02 5.23138829e-02</_>
    <_>
      6.48584887e-02 8.96226466e-02 4.71698120e-02 1.04952835e-01
      9.08018872e-02 9.31603760e-02 1.27358496e-01 1.17924526e-01
      3.41981128e-02 6.01415113e-02 7.31132105e-02 9.66981128e-02</_>
    <_>
      6.94736838e-02 8.52631554e-02 7.99999982e-02 7.15789422e-02
      9.36842039e-02 1.23157889e-01 7.68420994e-02 6.10526279e-02
      7.26315752e-02 7.57894665e-02 1.06315784e-01 8.42105225e-02</_>
    <_>
      1.05599999e-01 8.95999968e-02 5.92000000e-02 1.00800000e-01
      1.07199997e-01 7.51999989e-02 1.07199997e-01 9.75999981e-02
      4.80000004e-02 5.75999990e-02 5.11999987e-02 1.00800000e-01</_>
    <_>
      8.46715271e-02 9.01459828e-02 8.79561976e-02 8.02919641e-02
      7.08029196e-02 7.33576640e-02 8.79561976e-02 7.62773678e-02
      7.00729936e-02 1.05839409e-01 9.41605791e-02 7.84671530e-02</_>
    <_>
      5.09641878e-02 9.36639160e-02 3.58126722e-02 7.98898116e-02
      7.85124004e-02 6.88705221e-02 2.17630863e-01 1.25344351e-01
      3.85674946e-02 5.23415990e-02 6.47382960e-02 9.36639160e-02</_>
    <_>
      6.86178058e-02 6.44367933e-02 7.42744654e-02 6.36989623e-02
      7.47663528e-02 1.00098372e-01 1.27643868e-01 1.67732403e-01
      4.15641889e-02 8.11608434e-02 6.12395443e-02 7.47663528e-02</_>
    <_>
      6.26003221e-02 9.63081867e-02 4.49438207e-02 1.18780099e-01
      1.10754415e-01 1.01123594e-01 1.20385230e-01 1.18780099e-01
      2.40770467e-02 7.06260055e-02 2.72873193e-02 1.04333870e-01</_>
    <_>
      3.61990966e-02 5.88235296e-02 1.14630468e-01 6.93816021e-02
      5.58069386e-02 3.46908011e-02 7.69230798e-02 1.08597286e-01
      9.35143307e-02 1.32730022e-01 1.58371046e-01 6.03318252e-02</_>
    <_>
      6.40522912e-02 9.80392173e-02 6.01307191e-02 1.05882354e-01
      4.57516350e-02 7.32026175e-02 8.49673226e-02 9.67320278e-02
      1.13725491e-01 8.23529437e-02 1.29411772e-01 4.57516350e-02</_>
    <_>
      5.95238097e-02 8.33333358e-02 2.38095243e-02 5.95238097e-02
      5.95238097e-02 5.95238097e-02 2.14285716e-01 2.02380955e-01
      7.14285746e-02 2.38095243e-02 4.76190485e-02 9.52380970e-02</_>
    <_>
      9.96602476e-02 1.09852768e-01 2.26500556e-02 1.15515284e-01
      7.02151731e-02 6.79501668e-02 1.76670432e-01 1.35900334e-01
      3.28425802e-02 3.73725928e-02 6.22876547e-02 6.90826699e-02</_>
    <_>
      8.21474791e-02 6.33893907e-02 6.27425611e-02 7.76196644e-02
      6.66235462e-02 1.09961189e-01 9.76714119e-02 1.33893922e-01
      5.88615797e-02 1.12548515e-01 6.14489019e-02 7.30918497e-02</_>
    <_>
      1.31250009e-01 6.87500015e-02 1.25000002e-02 8.12500045e-02
      3.75000015e-02 1.56250000e-01 1.18749999e-01 6.87500015e-02
      1.50000006e-01 1.25000002e-02 1.18749999e-01 4.37499993e-02</_>
    <_>
      5.29100522e-02 8.46560821e-02 7.67195746e-02 9.12698358e-02
      5.95238060e-02 7.40740746e-02 1.07142851e-01 7.53968209e-02
      5.29100522e-02 1.05820104e-01 1.61375657e-01 5.82010560e-02</_>
    <_>
      1.22147657e-01 8.59060436e-02 4.42953035e-02 1.03355706e-01
      6.04026876e-02 1.07382551e-01 1.04697987e-01 9.93288606e-02
      5.77181242e-02 6.17449693e-02 8.05369169e-02 7.24832267e-02</_>
    <_>
      3.91061455e-02 1.06145248e-01 1.00558653e-01 4.46927361e-02
      7.26256967e-02 1.11731840e-02 2.79329605e-02 3.91061455e-02
      1.45251393e-01 1.73184350e-01 1.89944133e-01 5.02793267e-02</_>
    <_>
      6.59340695e-02 1.09890111e-01 4.39560451e-02 1.64835170e-01
      1.20879121e-01 7.69230798e-02 4.39560451e-02 0. 6.59340695e-02
      4.39560451e-02 1.20879121e-01 1.42857149e-01</_>
    <_>
      8.36236924e-02 1.11498259e-01 8.36236924e-02 1.04529619e-01
      6.79442510e-02 7.14285746e-02 7.14285746e-02 8.53658542e-02
      6.96864128e-02 8.18815306e-02 1.13240421e-01 5.57491295e-02</_>
    <_>
      5.50847463e-02 7.20338970e-02 6.14406765e-02 9.11016986e-02
      8.26271176e-02 2.96610165e-02 9.74576250e-02 9.95762721e-02
      6.35593235e-02 1.80084750e-01 8.47457647e-02 8.26271176e-02</_>
    <_>
      1.08433731e-01 7.57314935e-02 7.05679879e-02 7.57314935e-02
      8.95008594e-02 9.12220329e-02 1.27366602e-01 8.95008594e-02
      4.81927693e-02 7.22891539e-02 5.33562824e-02 9.81067121e-02</_>
    <_>
      5.26315756e-02 7.17703328e-02 8.61243978e-02 7.17703328e-02
      3.82775106e-02 4.78468882e-03 5.26315756e-02 1.24401912e-01
      1.10047840e-01 1.14832535e-01 2.29665071e-01 4.30621989e-02</_>
    <_>
      1.22977838e-01 8.46315175e-02 1.14439785e-01 8.04373920e-02
      3.89454775e-02 8.08867589e-02 3.62492539e-02 6.42600358e-02
      9.06231329e-02 1.15188740e-01 1.28669873e-01 4.26902361e-02</_>
    <_>
      5.25556207e-02 1.02705948e-01 5.32772094e-02 9.94588062e-02
      9.50090215e-02 2.80216467e-02 1.84485868e-01 1.60072163e-01
      2.88634989e-02 3.31930257e-02 5.35177365e-02 1.08839445e-01</_>
    <_>
      6.64395243e-02 8.09199288e-02 7.49574080e-02 6.38841540e-02
      8.26235041e-02 5.53662665e-02 1.11584321e-01 1.14139691e-01
      9.45485458e-02 8.26235041e-02 9.54003409e-02 7.75127783e-02</_>
    <_>
      2.48226933e-02 8.15602839e-02 7.09219873e-02 5.67375869e-02
      6.02836870e-02 4.25531901e-02 7.09219873e-02 9.57446769e-02
      1.52482271e-01 7.44680837e-02 1.95035458e-01 7.44680837e-02</_>
    <_>
      7.44047612e-02 9.22619030e-02 8.63095224e-02 7.44047612e-02
      6.84523806e-02 3.27380970e-02 4.46428582e-02 6.54761940e-02
      8.03571418e-02 2.05357149e-01 1.07142858e-01 6.84523806e-02</_>
    <_>
      1.14245422e-01 7.89844841e-02 1.02961920e-01 7.61636123e-02
      6.20592386e-02 1.11424543e-01 7.19323009e-02 9.59097371e-02
      6.77009895e-02 7.19323009e-02 8.46262351e-02 6.20592386e-02</_>
    <_>
      6.22009560e-02 6.22009560e-02 1.14832535e-01 8.13397095e-02
      4.78468873e-02 3.34928222e-02 3.82775106e-02 8.61243978e-02
      1.05263151e-01 1.43540666e-01 1.62679419e-01 6.22009560e-02</_>
    <_>
      6.77966103e-02 1.29943505e-01 9.03954804e-02 5.64971752e-02
      3.95480245e-02 9.03954804e-02 1.12994350e-01 6.21468946e-02
      6.77966103e-02 1.07344635e-01 1.07344635e-01 6.77966103e-02</_>
    <_>
      6.16438352e-02 9.24657509e-02 1.19863011e-01 9.24657509e-02
      5.82191795e-02 2.73972601e-02 6.84931502e-02 6.16438352e-02
      1.09589040e-01 7.19178095e-02 1.67808220e-01 6.84931502e-02</_>
    <_>
      6.76901564e-02 8.86252597e-02 6.42009750e-02 1.08164683e-01
      9.49057862e-02 7.53663629e-02 1.38171658e-01 9.00209323e-02
      4.32658754e-02 8.51360783e-02 5.58269359e-02 8.86252597e-02</_>
    <_>
      4.41922955e-02 8.77873972e-02 7.76351169e-02 1.02418631e-01
      7.49477446e-02 4.95670363e-02 1.51687071e-01 1.52582869e-01
      4.09077331e-02 8.09196755e-02 5.94207235e-02 7.79337138e-02</_>
    <_>
      5.05836569e-02 6.22568093e-02 1.12840466e-01 7.00389072e-02
      7.00389072e-02 2.72373538e-02 5.05836569e-02 4.28015552e-02
      1.40077814e-01 2.10116729e-01 1.28404662e-01 3.50194536e-02</_>
    <_>
      2.49027237e-01 3.89105044e-02 7.19844326e-02 4.47470807e-02
      7.29571953e-02 1.27431899e-01 5.93385212e-02 4.76653688e-02
      5.15564196e-02 1.10894941e-01 5.44747077e-02 7.10116699e-02</_>
    <_>
      4.23452742e-02 7.81758949e-02 1.14006512e-01 9.77198631e-02
      6.51465803e-02 2.93159597e-02 1.07491851e-01 7.16612339e-02
      6.84039071e-02 1.56351790e-01 1.10749185e-01 5.86319193e-02</_>
    <_>
      5.24344593e-02 1.12359554e-01 8.23970065e-02 1.19850188e-01
      1.38576776e-01 5.99250942e-02 7.86516890e-02 4.49438207e-02
      4.49438207e-02 1.04868919e-01 6.36704117e-02 9.73782763e-02</_>
    <_>
      3.48101258e-02 8.22784826e-02 8.86075944e-02 9.49367136e-02
      7.91139230e-02 6.32911408e-03 9.17721540e-02 7.59493709e-02
      9.17721540e-02 1.10759497e-01 1.80379748e-01 6.32911399e-02</_>
    <_>
      8.95522386e-02 7.08955228e-02 9.70149264e-02 5.22388034e-02
      5.97014911e-02 4.10447754e-02 4.85074632e-02 6.71641752e-02
      1.11940295e-01 1.64179102e-01 1.38059705e-01 5.97014911e-02</_>
    <_>
      2.77777798e-02 1.23015881e-01 1.26984134e-01 1.03174612e-01
      7.14285746e-02 1.98412705e-02 4.76190522e-02 7.14285746e-02
      7.93650821e-02 1.26984134e-01 1.38888896e-01 6.34920672e-02</_>
    <_>
      5.72207086e-02 5.72207086e-02 9.26430523e-02 7.35694841e-02
      4.63215262e-02 3.26975472e-02 1.08991824e-01 8.71934593e-02
      7.90190697e-02 1.47138968e-01 1.63487732e-01 5.44959120e-02</_>
    <_>
      1.91570874e-02 7.27969334e-02 7.66283497e-02 1.30268201e-01
      8.42911825e-02 3.83141753e-03 3.44827585e-02 1.07279688e-01
      1.30268201e-01 7.66283497e-02 1.99233711e-01 6.51341006e-02</_></support_vectors>
  <decision_functions>
    <_>
      <sv_count>137</sv_count>
      <rho>-9.9270683023895789e-01</rho>
      <alpha>
        35. 35. 3.5446917906933644e+00 35. 35. 35.
        5.7654726883001377e+00 35. 35. 35. 35. 35. 35. 35. 35. 35. 35.
        35. 35. 35. 35. 35. 35. 35. 35. 35. 35. 35. 35. 35. 35. 35. 35.
        35. 35. 35. 35. 35. 35. 35. 35. 35. 35. 35. 35. 35. 35. 35. 35.
        35. 35. 35. 35. 35. 35. 35. 35. 35. 35. 35. 35. 35. 35. 35.
        2.9188618382744277e+01 35. 35. 35. -35. -35. -35. -35. -35. -35.
        -1.7866278062381650e+01 -35. -35. -35. -35. -35. -35. -35. -35.
        -35. -35. -9.6946186579989480e+00 -35. -35. -35. -35. -35. -35.
        -35. -2.0563380025209383e+00 -35. -35. -35. -35. -35. -35. -35.
        -35. -35. -35. -8.8815481388362549e+00 -35. -35. -35. -35. -35.
        -35. -35. -35. -35. -35. -35. -35. -35. -35. -35. -35. -35. -35.
        -35. -35. -35. -35. -35. -35. -35. -35. -35. -35. -35. -35. -35.
        -35.</alpha>
      <index>
        17 0 136 1 70 72 5 75 77 7 79 9 11 14 83 16 84 87 86 88 20 90 22
        92 24 94 25 96 26 98 27 100 28 102 29 104 32 106 33 34 110 37 39
        111 41 43 114 116 46 48 50 52 120 54 121 123 125 57 128 60 130
        62 132 133 65 134 67 135 2 3 4 6 8 10 12 13 15 18 19 21 23 30 31
        35 36 38 40 42 44 45 47 49 51 53 55 56 58 59 61 63 64 66 68 105
        69 107 108 73 109 89 112 76 113 91 115 81 93 117 71 118 95 82
        122 78 124 97 126 127 99 129 74 101 131 85 103 80 119</index></_></decision_functions></opencv_ml_svm>
</opencv_storage>
